{"learner":{"attributes":{"best_iteration":"4","best_score":"2.055579","scikit_learn":"{\"objective\": \"reg:squarederror\", \"max_depth\": 4, \"learning_rate\": null, \"verbosity\": null, \"booster\": null, \"tree_method\": null, \"gamma\": 3.2616664045072663, \"min_child_weight\": 0.0, \"max_delta_step\": null, \"subsample\": null, \"colsample_bytree\": 0.7547046218041973, \"colsample_bylevel\": null, \"colsample_bynode\": null, \"reg_alpha\": 64.0, \"reg_lambda\": 0.44226821021693047, \"scale_pos_weight\": null, \"base_score\": null, \"missing\": NaN, \"num_parallel_tree\": null, \"kwargs\": {}, \"random_state\": null, \"n_jobs\": null, \"monotone_constraints\": null, \"interaction_constraints\": null, \"importance_type\": \"gain\", \"gpu_id\": null, \"validate_parameters\": null, \"n_features_in_\": 9, \"evals_result_\": {\"validation_0\": {\"mae\": [2.857187, 2.329257, 2.137314, 2.101978, 2.100518, 2.117907, 2.13502, 2.151588, 2.159915, 2.16161, 2.169694, 2.174266, 2.179214, 2.178872, 2.181208]}, \"validation_1\": {\"mae\": [2.895612, 2.376765, 2.147684, 2.068849, 2.055579, 2.070985, 2.095969, 2.116128, 2.12129, 2.121894, 2.131402, 2.139281, 2.140563, 2.140259, 2.146811]}}, \"best_score\": 2.055579, \"best_iteration\": 4, \"best_ntree_limit\": 5, \"type\": \"XGBRegressor\"}"},"gradient_booster":{"model":{"gbtree_model_param":{"num_trees":"15","size_leaf_vector":"0"},"tree_info":[0,0,0,0,0,0,0,0,0,0,0,0,0,0,0],"trees":[{"base_weights":[3.9059455E0,2.7379627E0,8.888474E0,1.3735241E0,3.7942505E0,6.8663077E0,1.2464056E1,6.8905896E-1,1.7948464E0,3.224308E0,4.641087E0,-0E0,1.2510481E1,-0E0,7.719186E-1,1.8012662E0,-0E0,3.2263122E0,-0E0,1.2533518E1,-0E0],"categories":[],"categories_nodes":[],"categories_segments":[],"categories_sizes":[],"default_left":[true,true,true,true,true,false,true,true,true,true,false,false,true,false,false,false,false,false,false,false,false],"id":0,"left_children":[1,3,5,7,9,-1,11,13,15,17,-1,-1,19,-1,-1,-1,-1,-1,-1,-1,-1],"loss_changes":[2.6581953E4,5.167365E3,5.098203E3,3.285503E2,5.153535E2,0E0,4.2273438E1,1.9611572E1,6.619385E0,6.609375E0,0E0,0E0,1.8550781E1,0E0,0E0,0E0,0E0,0E0,0E0,0E0,0E0],"parents":[2147483647,0,0,1,1,2,2,3,3,4,4,6,6,7,7,8,8,9,9,12,12],"right_children":[2,4,6,8,10,-1,12,14,16,18,-1,-1,20,-1,-1,-1,-1,-1,-1,-1,-1],"split_conditions":[1.8828905E0,6.510435E-1,3.1579065E0,3.09745E-1,1.2259095E0,2.0598924E0,4.2E1,6.8439E-2,1.75E1,2.94E2,1.3923261E0,-0E0,5.7529896E-2,-0E0,2.315756E-1,5.403799E-1,-0E0,9.6789366E-1,-0E0,3.7600555E0,-0E0],"split_indices":[6,6,6,6,6,0,1,6,2,1,0,0,7,0,0,0,0,0,0,0,0],"split_type":[0,0,0,0,0,0,0,0,0,0,0,0,0,0,0,0,0,0,0,0,0],"sum_hessian":[4.697E3,3.816E3,8.81E2,1.692E3,2.124E3,5.75E2,3.06E2,7.03E2,9.89E2,1.316E3,8.08E2,2E0,3.04E2,1.1E2,5.93E2,9.84E2,5E0,1.315E3,1E0,3.03E2,1E0],"tree_param":{"num_deleted":"0","num_feature":"9","num_nodes":"21","size_leaf_vector":"0"}},{"base_weights":[2.7583907E0,2.0463822E0,6.916456E0,1.1952521E0,3.0343227E0,5.690491E0,9.92082E0,4.938413E-1,1.4822309E0,2.679096E0,3.7136958E0,-0E0,5.714054E0,-0E0,1.0010978E1,-0E0,5.132501E-1,-0E0,1.487814E0,2.690962E0,-0E0,3.7345488E0,-0E0],"categories":[],"categories_nodes":[],"categories_segments":[],"categories_sizes":[],"default_left":[true,true,true,true,true,true,true,true,true,true,true,false,false,false,false,false,false,false,false,false,false,false,false],"id":1,"left_children":[1,3,5,7,9,11,13,15,17,19,21,-1,-1,-1,-1,-1,-1,-1,-1,-1,-1,-1,-1],"loss_changes":[1.3327262E4,3.1117188E3,1.4563594E3,3.1553076E2,2.7480469E1,3.4916992E1,2.1798828E1,5.8470154E0,9.285889E0,1.5338867E1,3.1881348E1,0E0,0E0,0E0,0E0,0E0,0E0,0E0,0E0,0E0,0E0,0E0,0E0],"parents":[2147483647,0,0,1,1,2,2,3,3,4,4,5,5,6,6,7,7,8,8,9,9,10,10],"right_children":[2,4,6,8,10,12,14,16,18,20,22,-1,-1,-1,-1,-1,-1,-1,-1,-1,-1,-1,-1],"split_conditions":[2.1944146E0,8.436035E-1,3.782201E0,3.09745E-1,1.539402E0,5.3252085E3,3.5E0,3.180485E2,9.95324E2,4.95E-1,1.49E0,-0E0,1.7142164E0,-0E0,3.0032935E0,-0E0,1.5397504E-1,-0E0,4.463442E-1,8.0728865E-1,-0E0,1.1203647E0,-0E0],"split_indices":[6,6,6,6,6,0,2,0,0,5,5,0,0,0,0,0,0,0,0,0,0,0,0],"split_type":[0,0,0,0,0,0,0,0,0,0,0,0,0,0,0,0,0,0,0,0,0,0,0],"sum_hessian":[4.697E3,4.024E3,6.73E2,2.197E3,1.827E3,4.94E2,1.79E2,7.03E2,1.494E3,1.263E3,5.64E2,3E0,4.91E2,3E0,1.76E2,3E1,6.73E2,7E0,1.487E3,1.254E3,9E0,5.6E2,4E0],"tree_param":{"num_deleted":"0","num_feature":"9","num_nodes":"23","size_leaf_vector":"0"}},{"base_weights":[1.9542631E0,1.5298495E0,5.6215096E0,9.0374476E-1,2.3243103E0,5.631684E0,-0E0,5.186076E-1,1.3255043E0,-0E0,2.3517315E0,5.6465197E0,-0E0,-0E0,6.0822594E-1,1.3403742E0,-0E0,2.3560367E0,-0E0,5.0117903E0,8.71309E0],"categories":[],"categories_nodes":[],"categories_segments":[],"categories_sizes":[],"default_left":[true,true,true,true,true,true,false,true,true,false,true,true,false,false,false,false,false,true,true,false,false],"id":2,"left_children":[1,3,5,7,9,11,-1,13,15,-1,-1,19,-1,-1,-1,-1,-1,-1,-1,-1,-1],"loss_changes":[6.849746E3,1.8947734E3,2.225879E1,2.7305127E2,8.371094E1,1.4950195E1,0E0,4.0559113E1,2.626416E1,0E0,2.9824219E0,1.4089844E1,0E0,0E0,0E0,0E0,0E0,0E0,0E0,0E0,0E0],"parents":[2147483647,0,0,1,1,2,2,3,3,4,4,5,5,7,7,8,8,10,10,11,11],"right_children":[2,4,6,8,10,12,-1,14,16,-1,-1,20,-1,-1,-1,-1,-1,-1,-1,-1,-1],"split_conditions":[2.5955791E0,9.269315E-1,3.33E2,5.32445E-1,3.2556555E3,5.544159E-2,-0E0,1.48965E-1,9.2398405E-1,-0E0,7.055195E-1,5.03948E0,-0E0,-0E0,1.8246779E-1,4.0211228E-1,-0E0,7.06811E-1,-0E0,1.5035372E0,2.6139271E0],"split_indices":[6,6,1,6,0,7,0,6,6,0,8,6,0,0,0,0,0,2147483647,2147483647,0,0],"split_type":[0,0,0,0,0,0,0,0,0,0,0,0,0,0,0,0,0,0,0,0,0],"sum_hessian":[4.697E3,4.226E3,4.71E2,2.409E3,1.817E3,4.7E2,1E0,1.339E3,1.07E3,2.7E1,1.79E3,4.68E2,2E0,2.56E2,1.083E3,1.061E3,9E0,1.784E3,6E0,4.06E2,6.2E1],"tree_param":{"num_deleted":"2","num_feature":"9","num_nodes":"21","size_leaf_vector":"0"}},{"base_weights":[1.3880756E0,7.451974E-1,2.2466657E0,4.2051196E-1,9.328546E-1,1.8887559E0,3.308892E0,-0E0,4.4258723E-1,9.3711114E-1,-0E0,1.9444736E0,-0E0,-0E0,3.4465318E0,4.5156068E-1,-0E0,-0E0,9.443074E-1,1.9579148E0,-0E0,3.4656608E0,-0E0],"categories":[],"categories_nodes":[],"categories_segments":[],"categories_sizes":[],"default_left":[true,true,true,true,true,true,true,false,true,true,false,true,false,false,true,false,false,false,false,false,false,false,false],"id":3,"left_children":[1,3,5,7,9,11,13,-1,15,17,-1,19,-1,-1,21,-1,-1,-1,-1,-1,-1,-1,-1],"loss_changes":[2.400622E3,7.951477E1,4.1295117E2,1.1257263E1,8.379883E0,5.207666E1,1.0998535E2,0E0,5.758194E0,7.3875732E0,0E0,4.903662E1,0E0,0E0,3.209961E1,0E0,0E0,0E0,0E0,0E0,0E0,0E0,0E0],"parents":[2147483647,0,0,1,1,2,2,3,3,4,4,5,5,6,6,8,8,9,9,11,11,14,14],"right_children":[2,4,6,8,10,12,14,-1,16,18,-1,20,-1,-1,22,-1,-1,-1,-1,-1,-1,-1,-1],"split_conditions":[7.15E1,3.25E1,1.685E2,6.5E0,2.4231496E4,5E-1,2.0583363E4,-0E0,6.3723154E3,2.504456E3,-0E0,4.038661E4,-0E0,-0E0,1.49E0,1.3546821E-1,-0E0,-0E0,2.8329223E-1,5.8737445E-1,-0E0,1.0396982E0,-0E0],"split_indices":[1,1,1,1,0,3,0,0,0,0,0,0,0,0,5,0,0,0,0,0,0,0,0],"split_type":[0,0,0,0,0,0,0,0,0,0,0,0,0,0,0,0,0,0,0,0,0,0,0],"sum_hessian":[4.697E3,2.729E3,1.968E3,1.125E3,1.604E3,1.518E3,4.5E2,5.2E1,1.073E3,1.599E3,5E0,1.446E3,7.2E1,2.6E1,4.24E2,1.059E3,1.4E1,1.6E1,1.583E3,1.439E3,7E0,4.22E2,2E0],"tree_param":{"num_deleted":"0","num_feature":"9","num_nodes":"23","size_leaf_vector":"0"}},{"base_weights":[9.8873115E-1,7.4968714E-1,3.6227663E0,4.5898044E-1,1.3628376E0,3.6480992E0,-0E0,1.812868E-1,6.433244E-1,-0E0,1.3928947E0,3.6547914E0,-0E0,-0E0,2.2066891E-1,6.602137E-1,-0E0,1.4111309E0,-0E0,-0E0,3.664944E0],"categories":[],"categories_nodes":[],"categories_segments":[],"categories_sizes":[],"default_left":[true,true,true,true,true,true,false,true,true,false,true,true,false,false,false,false,false,false,false,true,true],"id":4,"left_children":[1,3,5,7,9,11,-1,13,15,-1,17,-1,-1,-1,-1,-1,-1,-1,-1,-1,-1],"loss_changes":[2.6767075E3,6.548369E2,2.7937988E1,1.01178894E2,5.707007E1,4.5024414E0,0E0,8.152992E0,2.5421265E1,0E0,4.03042E1,2.1923828E-1,0E0,0E0,0E0,0E0,0E0,0E0,0E0,0E0,0E0],"parents":[2147483647,0,0,1,1,2,2,3,3,4,4,5,5,7,7,8,8,10,10,11,11],"right_children":[2,4,6,8,10,12,-1,14,16,-1,18,-1,-1,-1,-1,-1,-1,-1,-1,-1,-1],"split_conditions":[2.9103231E0,1.2259095E0,5.1211836E4,5.32445E-1,5.3566853E-3,6.696397E-2,-0E0,1.52269E-1,1.2091324E0,-0E0,4.95E-1,1.0964375E0,-0E0,-0E0,6.620067E-2,1.9806412E-1,-0E0,4.2333928E-1,-0E0,-0E0,1.0994833E0],"split_indices":[6,6,0,6,7,8,0,6,6,0,5,0,0,0,0,0,0,0,0,2147483647,2147483647],"split_type":[0,0,0,0,0,0,0,0,0,0,0,0,0,0,0,0,0,0,0,0,0],"sum_hessian":[4.697E3,4.329E3,3.68E2,3.008E3,1.321E3,3.65E2,3E0,1.339E3,1.669E3,2.7E1,1.294E3,3.64E2,1E0,2.68E2,1.071E3,1.643E3,2.6E1,1.281E3,1.3E1,2E0,3.62E2],"tree_param":{"num_deleted":"2","num_feature":"9","num_nodes":"21","size_leaf_vector":"0"}},{"base_weights":[7.0395464E-1,3.2074782E-1,1.1231496E0,1.6179542E-1,5.397162E-1,6.5445817E-1,1.4842926E0,1.8732029E-1,-0E0,-0E0,6.618957E-1,6.8706703E-1,-0E0,9.7321653E-1,2.263281E0,1.9653353E-1,-0E0,7.5983536E-1,-0E0,-0E0,7.238309E-1,1.0416924E0,-0E0,2.2815576E0,-0E0],"categories":[],"categories_nodes":[],"categories_segments":[],"categories_sizes":[],"default_left":[true,true,true,true,true,true,true,true,false,false,true,true,false,true,true,false,false,false,false,false,false,false,false,false,false],"id":5,"left_children":[1,3,5,7,9,11,13,15,-1,-1,17,19,-1,21,23,-1,-1,-1,-1,-1,-1,-1,-1,-1,-1],"loss_changes":[6.62021E2,4.3277283E1,2.2888452E2,1.0284443E1,5.800702E1,3.1850433E1,2.4751807E2,4.7414093E0,0E0,0E0,3.6767944E1,2.6329346E1,0E0,6.757489E1,1.7894775E1,0E0,0E0,0E0,0E0,0E0,0E0,0E0,0E0,0E0,0E0],"parents":[2147483647,0,0,1,1,2,2,3,3,4,4,5,5,6,6,7,7,10,10,11,11,13,13,14,14],"right_children":[2,4,6,8,10,12,14,16,-1,-1,18,20,-1,22,24,-1,-1,-1,-1,-1,-1,-1,-1,-1,-1],"split_conditions":[8.86265E3,2.3519963E-2,1.1968758E-2,2.1979567E-2,1.4039635E3,1.1817691E-2,1.7844129E4,8.778556E3,-0E0,-0E0,6.784313E3,3.9521884E-3,-0E0,1.7025832E4,4.764156E-2,5.896006E-2,-0E0,2.2795062E-1,-0E0,-0E0,2.1714927E-1,3.1250772E-1,-0E0,6.844673E-1,-0E0],"split_indices":[0,7,7,7,0,7,0,0,0,0,0,7,0,0,7,0,0,0,0,0,0,0,0,0,0],"split_type":[0,0,0,0,0,0,0,0,0,0,0,0,0,0,0,0,0,0,0,0,0,0,0,0,0],"sum_hessian":[4.697E3,2.534E3,2.163E3,1.638E3,8.96E2,1.019E3,1.144E3,1.515E3,1.23E2,1.68E2,7.28E2,9.92E2,2.7E1,7.41E2,4.03E2,1.499E3,1.6E1,6.16E2,1.12E2,4.8E1,9.44E2,7.09E2,3.2E1,4E2,3E0],"tree_param":{"num_deleted":"0","num_feature":"9","num_nodes":"25","size_leaf_vector":"0"}},{"base_weights":[5.0615716E-1,2.7677473E-1,8.727305E-1,1.9092786E-1,6.133561E-1,4.4390786E-1,1.1640306E0,2.0578474E-2,2.9795322E-1,6.495122E-1,-0E0,6.777576E-1,-0E0,9.6281636E-1,3.1134012E0,5.0720744E-2,-0E0,3.459815E-1,-0E0,-0E0,7.275195E-1,-0E0,8.4909844E-1,-0E0,1.8333752E-3,3.6233783E-1,1.3435986E0,3.986899E0,-0E0],"categories":[],"categories_nodes":[],"categories_segments":[],"categories_sizes":[],"default_left":[true,true,true,true,true,true,true,true,true,true,false,true,true,true,true,true,true,false,false,false,false,false,false,true,true,false,false,false,false],"id":6,"left_children":[1,3,5,7,9,11,13,-1,17,19,-1,21,-1,25,27,-1,-1,-1,-1,-1,-1,-1,-1,-1,-1,-1,-1,-1,-1],"loss_changes":[3.2131152E2,3.508348E1,1.09276E2,2.5927849E1,1.8355774E1,6.611743E1,1.0000818E2,2.1327503E0,3.189862E1,1.7794754E1,0E0,2.757428E1,4.7878615E-4,8.894678E1,1.4342072E2,0E0,0E0,0E0,0E0,0E0,0E0,0E0,0E0,0E0,0E0,0E0,0E0,0E0,0E0],"parents":[2147483647,0,0,1,1,2,2,3,3,4,4,5,5,6,6,7,7,8,8,9,9,11,11,12,12,13,13,14,14],"right_children":[2,4,6,8,10,12,14,-1,18,20,-1,22,-1,26,28,-1,-1,-1,-1,-1,-1,-1,-1,-1,-1,-1,-1,-1,-1],"split_conditions":[1.1392689E4,3.83325E-2,1.1095208E-2,4.607267E3,1.55E1,8.595005E-3,3.6250758E4,6.1735422E-3,3.4964852E-2,1.558064E3,-0E0,5.382538E-3,-0E0,1.6214013E-2,1.9399285E-2,1.5216224E-2,-0E0,1.03794456E-1,-0E0,-0E0,2.1825586E-1,-0E0,2.5472954E-1,-0E0,5.5001257E-4,1.08701356E-1,4.030796E-1,1.1960697E0,-0E0],"split_indices":[0,8,7,0,2,7,0,8,8,0,0,7,2,7,7,2147483647,2147483647,0,0,0,0,0,0,2147483647,2147483647,0,0,0,0],"split_type":[0,0,0,0,0,0,0,0,0,0,0,0,0,0,0,0,0,0,0,0,0,0,0,0,0,0,0,0,0],"sum_hessian":[4.697E3,2.997E3,1.7E3,2.54E3,4.57E2,7.77E2,9.23E2,1.211E3,1.329E3,4.51E2,6E0,4.77E2,3E2,8.67E2,5.6E1,1.028E3,1.83E2,1.252E3,7.7E1,5.8E1,3.93E2,1.35E2,3.42E2,1.58E2,1.42E2,4.02E2,4.65E2,4.3E1,1.3E1],"tree_param":{"num_deleted":"4","num_feature":"9","num_nodes":"29","size_leaf_vector":"0"}},{"base_weights":[3.799438E-1,2.680719E-1,2.0328715E0,1.5612593E-1,6.542279E-1,2.0763962E0,-0E0,2.4318162E-2,2.40865E-1,6.896926E-1,-0E0,2.1494849E0,-0E0,5.9488684E-2,-0E0,2.7835923E-1,-0E0,7.173127E-1,-0E0,-0E0,2.1813214E0],"categories":[],"categories_nodes":[],"categories_segments":[],"categories_sizes":[],"default_left":[true,true,true,true,true,true,false,true,true,true,false,true,false,false,false,false,false,false,false,false,false],"id":7,"left_children":[1,3,5,7,9,11,-1,13,15,17,-1,19,-1,-1,-1,-1,-1,-1,-1,-1,-1],"loss_changes":[7.2113165E2,1.3987341E2,2.0891602E1,2.2882576E1,3.4256348E1,1.883313E1,0E0,4.1427274E0,2.2273376E1,2.8535309E1,0E0,1.9153076E1,0E0,0E0,0E0,0E0,0E0,0E0,0E0,0E0,0E0],"parents":[2147483647,0,0,1,1,2,2,3,3,4,4,5,5,7,7,8,8,9,9,11,11],"right_children":[2,4,6,8,10,12,-1,14,16,18,-1,20,-1,-1,-1,-1,-1,-1,-1,-1,-1],"split_conditions":[3.3635535E0,1.630993E0,3.11E2,6.510435E-1,4.95E-1,5.564E-2,-0E0,5.70855E-1,1.473577E0,3.302485E0,-0E0,4.75E1,-0E0,1.7846607E-2,-0E0,8.3507776E-2,-0E0,2.1519382E-1,-0E0,-0E0,6.543964E-1],"split_indices":[6,6,1,6,5,8,0,6,6,6,0,1,0,0,0,0,0,0,0,0,0],"split_type":[0,0,0,0,0,0,0,0,0,0,0,0,0,0,0,0,0,0,0,0,0],"sum_hessian":[4.697E3,4.436E3,2.61E2,3.568E3,8.68E2,2.55E2,6E0,1.692E3,1.876E3,8.53E2,1.5E1,2.42E2,1.3E1,1.453E3,2.39E2,1.692E3,1.84E2,8.44E2,9E0,3E0,2.39E2],"tree_param":{"num_deleted":"0","num_feature":"9","num_nodes":"21","size_leaf_vector":"0"}},{"base_weights":[2.7238518E-1,1.9980218E-1,1.777906E0,1.00710995E-1,4.6222672E-1,-0E0,1.9371173E0,2.879882E-1,3.5029963E-2,-0E0,5.0002193E-1,2.0937195E0,-0E0,-0E0,4.3197206E-1,2.432725E-1,-0E0,1.0859739E0,2.6331478E-1,2.2536104E0,-0E0],"categories":[],"categories_nodes":[],"categories_segments":[],"categories_sizes":[],"default_left":[true,true,true,true,true,false,true,true,true,false,true,true,false,false,false,false,false,false,false,false,false],"id":8,"left_children":[1,3,5,7,9,-1,11,13,15,-1,17,19,-1,-1,-1,-1,-1,-1,-1,-1,-1],"loss_changes":[3.865836E2,8.155278E1,5.874048E1,2.1887749E1,1.6637375E1,0E0,5.933435E1,1.7459301E1,2.639883E1,0E0,4.8673233E1,5.5869812E1,0E0,0E0,0E0,0E0,0E0,0E0,0E0,0E0,0E0],"parents":[2147483647,0,0,1,1,2,2,3,3,4,4,6,6,7,7,8,8,10,10,11,11],"right_children":[2,4,6,8,10,-1,12,14,16,-1,18,20,-1,-1,-1,-1,-1,-1,-1,-1,-1],"split_conditions":[3.80647E0,1.539402E0,1.0815274E-2,8.251939E-3,6.8221707E-3,-0E0,2.05E1,4.945125E-1,3.5E0,-0E0,1.4552107E-2,5.564E-2,-0E0,-0E0,1.2959163E-1,7.298175E-2,-0E0,3.2579216E-1,7.899444E-2,6.7608315E-1,-0E0],"split_indices":[6,6,7,7,8,0,2,6,2,0,8,8,0,0,0,0,0,0,0,0,0],"split_type":[0,0,0,0,0,0,0,0,0,0,0,0,0,0,0,0,0,0,0,0,0],"sum_hessian":[4.697E3,4.522E3,1.75E2,3.46E3,1.062E3,1.2E1,1.63E2,6.45E2,2.815E3,8.8E1,9.74E2,1.53E2,1E1,2.65E2,3.8E2,5.04E2,2.311E3,2.02E2,7.72E2,1.43E2,1E1],"tree_param":{"num_deleted":"0","num_feature":"9","num_nodes":"21","size_leaf_vector":"0"}},{"base_weights":[2.0649798E-1,9.096012E-2,6.694805E-1,-0E0,1.4274152E-1,4.7187743E-1,2.0370238E0,-0E0,6.586073E-2,2.4387543E-1,-0E0,-0E0,5.359206E-1,2.4247386E0,-0E0,1.7734993E-2,-1.14907235E-1,2.2662656E-1,-0E0,6.870637E-2,5.020554E-1,-1.683629E-1,1.329427E-1,1.8487209E0,2.3569587E-1,2.5957093E0,-0E0],"categories":[],"categories_nodes":[],"categories_segments":[],"categories_sizes":[],"default_left":[true,true,true,true,true,true,true,true,true,true,true,false,true,true,false,false,false,false,false,false,false,false,false,false,false,false,false],"id":9,"left_children":[1,3,5,7,9,11,13,15,17,19,21,-1,23,25,-1,-1,-1,-1,-1,-1,-1,-1,-1,-1,-1,-1,-1],"loss_changes":[2.0258049E2,1.2363022E1,6.260553E1,2.5871494E0,3.2006424E1,3.0670395E1,5.095468E1,8.277527E0,1.2997524E1,2.1545082E1,2.0110962E1,0E0,1.4207944E2,3.239673E1,0E0,0E0,0E0,0E0,0E0,0E0,0E0,0E0,0E0,0E0,0E0,0E0,0E0],"parents":[2147483647,0,0,1,1,2,2,3,3,4,4,5,5,6,6,7,7,8,8,9,9,10,10,12,12,13,13],"right_children":[2,4,6,8,10,12,14,16,18,20,22,-1,24,26,-1,-1,-1,-1,-1,-1,-1,-1,-1,-1,-1,-1,-1],"split_conditions":[1.954453E0,6.510435E-1,5.03948E0,1.9454751E-2,1.7384544E-2,8.768126E-3,4.8839606E-2,1.0246227E-2,2.8352443E-2,1.3457332E-2,2.3507785E-2,-0E0,1.3936011E-2,4.764156E-2,-0E0,5.3204983E-3,-3.447217E-2,6.798797E-2,-0E0,2.0611912E-2,1.5061663E-1,-5.050887E-2,3.9882813E-2,5.546163E-1,7.070877E-2,7.787128E-1,-0E0],"split_indices":[6,6,6,7,7,8,8,7,7,7,7,0,8,7,0,0,0,0,0,0,0,0,0,0,0,0,0],"split_type":[0,0,0,0,0,0,0,0,0,0,0,0,0,0,0,0,0,0,0,0,0,0,0,0,0,0,0],"sum_hessian":[4.697E3,3.87E3,8.27E2,1.692E3,2.178E3,7.64E2,6.3E1,1.096E3,5.96E2,1.284E3,8.94E2,6.5E1,6.99E2,5.3E1,1E1,4.81E2,6.15E2,3.03E2,2.93E2,9.13E2,3.71E2,4.02E2,4.92E2,9E1,6.09E2,5.1E1,2E0],"tree_param":{"num_deleted":"0","num_feature":"9","num_nodes":"27","size_leaf_vector":"0"}},{"base_weights":[1.6207683E-1,1.3318294E-1,1.0586262E0,4.0618833E-2,2.7870914E-1,-0E0,1.3657998E0,9.90811E-2,-2.4127729E-1,5.608475E-1,1.3920216E-1,1.6155493E0,-0E0,-0E0,1.4965321E-1,-0E0,-3.0940866E-1,-0E0,8.2037574E-1,-0E0,3.565862E-1,-0E0,2.1958838E0],"categories":[],"categories_nodes":[],"categories_segments":[],"categories_sizes":[],"default_left":[true,true,true,true,true,false,true,true,true,true,true,true,false,false,false,false,false,false,false,false,false,false,false],"id":10,"left_children":[1,3,5,7,9,-1,11,13,15,17,19,21,-1,-1,-1,-1,-1,-1,-1,-1,-1,-1,-1],"loss_changes":[4.534809E1,4.1797684E1,3.715329E1,4.1890827E1,1.5282837E1,0E0,4.164228E1,1.739768E1,1.1353867E1,6.747175E1,4.647041E1,3.90683E1,0E0,0E0,0E0,0E0,0E0,0E0,0E0,0E0,0E0,0E0,0E0],"parents":[2147483647,0,0,1,1,2,2,3,3,4,4,6,6,7,7,8,8,9,9,10,10,11,11],"right_children":[2,4,6,8,10,-1,12,14,16,18,20,22,-1,-1,-1,-1,-1,-1,-1,-1,-1,-1,-1],"split_conditions":[4.1950777E4,2.5712501E-2,7.5E0,2.2136666E-2,2.9405E-2,-0E0,3.4705706E-2,4.2080557E3,8.501433E-3,1.5365668E-2,3.9653502E-2,8.844934E-3,-0E0,-0E0,4.4895966E-2,-0E0,-9.2822604E-2,-0E0,2.4611273E-1,-0E0,1.0697586E-1,-0E0,6.5876514E-1],"split_indices":[0,8,2,8,8,0,8,0,7,7,8,8,0,0,0,0,0,0,0,0,0,0,0],"split_type":[0,0,0,0,0,0,0,0,0,0,0,0,0,0,0,0,0,0,0,0,0,0,0],"sum_hessian":[4.697E3,4.62E3,7.7E1,3.093E3,1.527E3,1.1E1,6.6E1,2.75E3,3.43E2,3.53E2,1.174E3,6.3E1,3E0,7.68E2,1.982E3,1.6E1,3.27E2,8.8E1,2.65E2,6.3E2,5.44E2,2.1E1,4.2E1],"tree_param":{"num_deleted":"0","num_feature":"9","num_nodes":"23","size_leaf_vector":"0"}},{"base_weights":[1.1743258E-1,3.3086002E-2,4.3456239E-1,1.7436136E-1,-0E0,9.092106E-1,1.9652587E-1,2.3186773E-1,-0E0,-7.43886E-2,3.6203578E-2,9.6609193E-1,-0E0,-0E0,5.282062E-1,-0E0,3.6139917E-1,-2.1166922E-1,-0E0,1.5075159E-1,-0E0,-0E0,9.7196454E-1,-9.162438E-2,-0E0,-0E0,8.195332E-1],"categories":[],"categories_nodes":[],"categories_segments":[],"categories_sizes":[],"default_left":[true,true,true,true,true,true,true,true,false,true,true,true,false,true,true,false,false,false,false,false,false,true,true,true,true,false,false],"id":11,"left_children":[1,3,5,7,9,11,13,15,-1,17,19,-1,-1,-1,25,-1,-1,-1,-1,-1,-1,-1,-1,-1,-1,-1,-1],"loss_changes":[9.571516E1,1.6449816E1,2.264125E1,1.320752E1,8.23398E0,1.5221054E1,6.686194E1,1.4619595E1,0E0,1.0347132E1,1.1425433E1,1.1203613E0,0E0,2.28716E0,4.970436E1,0E0,0E0,0E0,0E0,0E0,0E0,0E0,0E0,0E0,0E0,0E0,0E0],"parents":[2147483647,0,0,1,1,2,2,3,3,4,4,5,5,6,6,7,7,9,9,10,10,11,11,13,13,14,14],"right_children":[2,4,6,8,10,12,14,16,-1,18,20,-1,-1,-1,26,-1,-1,-1,-1,-1,-1,-1,-1,-1,-1,-1,-1],"split_conditions":[1.954453E0,8.165914E-3,9.55E1,2.21E2,1.3457332E-2,6.403444E-2,1.565E2,4.945125E-1,-0E0,1.1405071E-2,1.7384544E-2,2.898276E-1,-0E0,-0E0,1.0972409E-2,-0E0,1.0841975E-1,-6.350077E-2,-0E0,4.522548E-2,-0E0,-0E0,2.9158938E-1,-2.7487315E-2,-0E0,-0E0,2.4585998E-1],"split_indices":[6,7,1,1,7,8,1,6,0,8,7,1,0,8,7,0,0,0,0,0,0,2147483647,2147483647,2147483647,2147483647,0,0],"split_type":[0,0,0,0,0,0,0,0,0,0,0,0,0,0,0,0,0,0,0,0,0,0,0,0,0,0,0],"sum_hessian":[4.697E3,3.87E3,8.27E2,6.8E2,3.19E3,1.86E2,6.41E2,6.3E2,5E1,9.59E2,2.231E3,1.81E2,5E0,3.13E2,3.28E2,2.59E2,3.71E2,3.49E2,6.1E2,6.31E2,1.6E3,1E0,1.8E2,2.72E2,4.1E1,1.18E2,2.1E2],"tree_param":{"num_deleted":"4","num_feature":"9","num_nodes":"27","size_leaf_vector":"0"}},{"base_weights":[8.535371E-2,4.677351E-2,3.0582884E-1,9.6178345E-2,-2.104581E-1,-0E0,5.67547E-1,3.9675333E-2,6.347179E-1,-2.5934651E-1,-0E0,6.2248224E-1,-0E0,9.9707596E-2,-1.5866074E-1,-0E0,7.056131E-1,-2.8496194E-1,-0E0,-0E0,6.379841E-1],"categories":[],"categories_nodes":[],"categories_segments":[],"categories_sizes":[],"default_left":[true,true,true,true,true,false,true,true,true,true,false,true,false,false,false,false,false,false,false,false,false],"id":12,"left_children":[1,3,5,7,9,-1,11,13,15,17,-1,19,-1,-1,-1,-1,-1,-1,-1,-1,-1],"loss_changes":[1.7383446E1,4.664819E1,3.706393E1,7.155889E1,8.565836E0,0E0,1.41736145E1,3.8150368E1,9.856865E0,5.572529E0,0E0,3.9036407E0,0E0,0E0,0E0,0E0,0E0,0E0,0E0,0E0,0E0],"parents":[2147483647,0,0,1,1,2,2,3,3,4,4,6,6,7,7,8,8,9,9,11,11],"right_children":[2,4,6,8,10,-1,12,14,16,18,-1,20,-1,-1,-1,-1,-1,-1,-1,-1,-1],"split_conditions":[3.319993E-2,2.6159791E-2,2.35E1,2.3515055E-2,1.25E1,-0E0,2.5472066E4,1.9218683E-2,1.8813585E3,4.95E-1,-0E0,1.835571E3,-0E0,2.991228E-2,-4.7598224E-2,-0E0,2.1168393E-1,-8.548859E-2,-0E0,-0E0,1.9139524E-1],"split_indices":[7,7,1,7,2,0,0,7,0,5,0,0,0,0,0,0,0,0,0,0,0],"split_type":[0,0,0,0,0,0,0,0,0,0,0,0,0,0,0,0,0,0,0,0,0],"sum_hessian":[4.697E3,4.245E3,4.52E2,3.77E3,4.75E2,2.06E2,2.46E2,3.52E3,2.5E2,4.4E2,3.5E1,2.41E2,5E0,2.95E3,5.7E2,2.8E1,2.22E2,4.33E2,7E0,2E0,2.39E2],"tree_param":{"num_deleted":"0","num_feature":"9","num_nodes":"21","size_leaf_vector":"0"}},{"base_weights":[6.0482502E-2,2.84736E-2,9.331815E-1,1.7762966E-1,-0E0,1.3877416E0,-0E0,-0E0,3.1964207E-1,-5.3970035E-2,8.846724E-2,1.5194371E0,-0E0,3.8662606E-1,-0E0,-0E0,-1.0287399E-1,1.7728402E-1,-0E0,-0E0,1.5576017E0],"categories":[],"categories_nodes":[],"categories_segments":[],"categories_sizes":[],"default_left":[true,true,true,true,true,true,false,false,true,true,true,true,false,false,false,false,false,false,false,false,false],"id":13,"left_children":[1,3,5,7,9,11,-1,-1,13,15,17,19,-1,-1,-1,-1,-1,-1,-1,-1,-1],"loss_changes":[6.966132E1,1.5592547E1,6.795243E1,1.7502804E1,1.9822712E1,1.8489166E1,0E0,0E0,1.510881E1,1.2628114E1,1.9422718E1,3.7723694E0,0E0,0E0,0E0,0E0,0E0,0E0,0E0,0E0,0E0],"parents":[2147483647,0,0,1,1,2,2,3,3,4,4,5,5,8,8,9,9,10,10,11,11],"right_children":[2,4,6,8,10,12,-1,-1,14,16,18,20,-1,-1,-1,-1,-1,-1,-1,-1,-1],"split_conditions":[4.3854156E0,3.5E0,1.65E1,1.6770445E-2,1.1398234E0,4.764156E-2,-0E0,-0E0,2.0860035E0,8.251939E-3,1.9368522E-2,1.1634943E-2,-0E0,1.1598782E-1,-0E0,-0E0,-3.0862197E-2,5.3185206E-2,-0E0,-0E0,4.6728054E-1],"split_indices":[6,2,2,7,6,7,0,0,6,7,7,7,0,0,0,0,0,0,0,0,0],"split_type":[0,0,0,0,0,0,0,0,0,0,0,0,0,0,0,0,0,0,0,0,0],"sum_hessian":[4.697E3,4.602E3,9.5E1,6.12E2,3.99E3,7.8E1,1.7E1,2.52E2,3.6E2,2.322E3,1.668E3,7.3E1,5E0,3.47E2,1.3E1,4.9E2,1.832E3,1.033E3,6.35E2,2E0,7.1E1],"tree_param":{"num_deleted":"0","num_feature":"9","num_nodes":"21","size_leaf_vector":"0"}},{"base_weights":[4.519218E-2,2.2868836E-2,5.503909E-1,5.1548433E-2,-3.435987E-1,9.907929E-1,-0E0,2.1213418E-2,3.680294E-1,-5.1046276E-1,-0E0,1.5307765E0,-0E0,5.563679E-2,-1.4150508E-1,7.0082337E-1,-0E0,-0E0,-6.1794424E-1,-0E0,2.4756396E0],"categories":[],"categories_nodes":[],"categories_segments":[],"categories_sizes":[],"default_left":[true,true,true,true,true,true,false,true,true,true,false,true,false,false,false,false,false,false,false,false,false],"id":14,"left_children":[1,3,5,7,9,11,-1,13,15,17,-1,19,-1,-1,-1,-1,-1,-1,-1,-1,-1],"loss_changes":[1.6282274E1,2.9878117E1,3.685646E1,1.7782475E1,2.1069624E1,3.445137E1,0E0,1.8276787E1,4.128788E1,1.6282768E1,0E0,1.8261383E1,0E0,0E0,0E0,0E0,0E0,0E0,0E0,0E0,0E0],"parents":[2147483647,0,0,1,1,2,2,3,3,4,4,5,5,7,7,8,8,9,9,11,11],"right_children":[2,4,6,8,10,12,-1,14,16,18,-1,20,-1,-1,-1,-1,-1,-1,-1,-1,-1],"split_conditions":[4.1950777E4,2.095E2,2.965E2,1.685E2,3E2,1.6632479E-2,-0E0,1.9054898E4,2.9230129E4,1.0404959E-3,-0E0,8.844934E-3,-0E0,1.6691038E-2,-4.2451523E-2,2.1024702E-1,-0E0,-0E0,-1.8538328E-1,-0E0,7.426919E-1],"split_indices":[0,1,1,1,1,8,0,0,0,8,0,8,0,0,0,0,0,0,0,0,0],"split_type":[0,0,0,0,0,0,0,0,0,0,0,0,0,0,0,0,0,0,0,0,0],"sum_hessian":[4.697E3,4.62E3,7.7E1,4.447E3,1.73E2,6.1E1,1.6E1,4.243E3,2.04E2,1.59E2,1.4E1,4E1,2.1E1,3.827E3,4.16E2,1.4E2,6.4E1,8E0,1.51E2,2.2E1,1.8E1],"tree_param":{"num_deleted":"0","num_feature":"9","num_nodes":"21","size_leaf_vector":"0"}}]},"name":"gbtree"},"learner_model_param":{"base_score":"5E-1","num_class":"0","num_feature":"9"},"objective":{"name":"reg:squarederror","reg_loss_param":{"scale_pos_weight":"1"}}},"version":[1,3,3]}
